digraph Tree {
node [shape=box, style="filled, rounded", color="black", fontname=helvetica] ;
edge [fontname=helvetica] ;
0 [label="sepal length (cm) <= 5.45\ngini = 0.66\nsamples = 92\nvalue = [50, 55, 45]\nclass = versicolor", fillcolor="#f5fef9"] ;
1 [label="petal width (cm) <= 0.8\ngini = 0.23\nsamples = 33\nvalue = [46, 7, 0]\nclass = setosa", fillcolor="#e99457"] ;
0 -> 1 [labeldistance=2.5, labelangle=45, headlabel="True"] ;
2 [label="gini = 0.0\nsamples = 29\nvalue = [46, 0, 0]\nclass = setosa", fillcolor="#e58139"] ;
1 -> 2 ;
3 [label="gini = 0.0\nsamples = 4\nvalue = [0, 7, 0]\nclass = versicolor", fillcolor="#39e581"] ;
1 -> 3 ;
4 [label="petal width (cm) <= 1.75\ngini = 0.54\nsamples = 59\nvalue = [4, 48, 45]\nclass = versicolor", fillcolor="#f4fef8"] ;
0 -> 4 [labeldistance=2.5, labelangle=-45, headlabel="False"] ;
5 [label="sepal width (cm) <= 3.6\ngini = 0.18\nsamples = 30\nvalue = [4, 46, 1]\nclass = versicolor", fillcolor="#4ee88e"] ;
4 -> 5 ;
6 [label="petal length (cm) <= 4.95\ngini = 0.04\nsamples = 28\nvalue = [0, 46, 1]\nclass = versicolor", fillcolor="#3de684"] ;
5 -> 6 ;
7 [label="gini = 0.0\nsamples = 25\nvalue = [0, 43, 0]\nclass = versicolor", fillcolor="#39e581"] ;
6 -> 7 ;
8 [label="sepal width (cm) <= 2.45\ngini = 0.38\nsamples = 3\nvalue = [0, 3, 1]\nclass = versicolor", fillcolor="#7beeab"] ;
6 -> 8 ;
9 [label="gini = 0.0\nsamples = 1\nvalue = [0, 0, 1]\nclass = virginica", fillcolor="#8139e5"] ;
8 -> 9 ;
10 [label="gini = 0.0\nsamples = 2\nvalue = [0, 3, 0]\nclass = versicolor", fillcolor="#39e581"] ;
8 -> 10 ;
11 [label="gini = 0.0\nsamples = 2\nvalue = [4, 0, 0]\nclass = setosa", fillcolor="#e58139"] ;
5 -> 11 ;
12 [label="sepal length (cm) <= 5.95\ngini = 0.08\nsamples = 29\nvalue = [0, 2, 44]\nclass = virginica", fillcolor="#8742e6"] ;
4 -> 12 ;
13 [label="sepal length (cm) <= 5.85\ngini = 0.32\nsamples = 6\nvalue = [0, 2, 8]\nclass = virginica", fillcolor="#a06aec"] ;
12 -> 13 ;
14 [label="gini = 0.0\nsamples = 5\nvalue = [0, 0, 8]\nclass = virginica", fillcolor="#8139e5"] ;
13 -> 14 ;
15 [label="gini = 0.0\nsamples = 1\nvalue = [0, 2, 0]\nclass = versicolor", fillcolor="#39e581"] ;
13 -> 15 ;
16 [label="gini = 0.0\nsamples = 23\nvalue = [0, 0, 36]\nclass = virginica", fillcolor="#8139e5"] ;
12 -> 16 ;
}